<?xml version="1.0"?>
<opencv_storage>
<cascade>
  <stageType>BOOST</stageType>
  <featureType>HAAR</featureType>
  <height>24</height>
  <width>24</width>
  <stageParams>
    <boostType>GAB</boostType>
    <minHitRate>9.9900001287460327e-01</minHitRate>
    <maxFalseAlarm>5.0000000000000000e-01</maxFalseAlarm>
    <weightTrimRate>9.4999999999999996e-01</weightTrimRate>
    <maxDepth>1</maxDepth>
    <maxWeakCount>100</maxWeakCount></stageParams>
  <featureParams>
    <maxCatCount>0</maxCatCount>
    <featSize>1</featSize>
    <mode>ALL</mode></featureParams>
  <stageNum>20</stageNum>
  <stages>
    <!-- stage 0 -->
    <_>
      <maxWeakCount>4</maxWeakCount>
      <stageThreshold>-2.0966460704803467e+00</stageThreshold>
      <weakClassifiers>
        <_>
          <internalNodes>
            0 -1 34 5.2415743470191956e-02</internalNodes>
          <leafValues>
            -9.4168096780776978e-01 9.3313670158386230e-01</leafValues></_>
        <_>
          <internalNodes>
            0 -1 91 3.0232734978199005e-02</internalNodes>
          <leafValues>
            -9.1690468788146973e-01 7.9426342248916626e-01</leafValues></_>
        <_>
          <internalNodes>
            0 -1 64 6.4615965820848942e-03</internalNodes>
          <leafValues>
            -8.3983522653579712e-01 6.9156312942504883e-01</leafValues></_>
        <_>
          <internalNodes>
            0 -1 65 -9.2661716043949127e-03</internalNodes>
          <leafValues>
            6.0177475214004517e-01 -7.8304511308670044e-01</leafValues></_></weakClassifiers></_>
    <!-- stage 1 -->
    <_>
      <maxWeakCount>3</maxWeakCount>
      <stageThreshold>-1.2754878997802734e+00</stageThreshold>
      <weakClassifiers>
        <_>
          <internalNodes>
            0 -1 26 2.3621979355812073e-01</internalNodes>
          <leafValues>
            -8.8296043872833252e-01 8.9597642421722412e-01</leafValues></_>
        <_>
          <internalNodes>
            0 -1 57 3.3531941473484039e-02</internalNodes>
          <leafValues>
            -9.2233246564865112e-01 6.3027429580688477e-01</leafValues></_>
        <_>
          <internalNodes>
            0 -1 74 1.0273737832903862e-02</internalNodes>
          <leafValues>
            -7.7899324893951416e-01 5.2980500459671021e-01</leafValues></_></weakClassifiers></_>
    <!-- stage 2 -->
    <_>
      <maxWeakCount>5</maxWeakCount>
      <stageThreshold>-1.6045844554901123e+00</stageThreshold>
      <weakClassifiers>
        <_>
          <internalNodes>
            0 -1 59 1.8850531429052353e-02</internalNodes>
          <leafValues>
            -7.8048777580261230e-01 8.2651072740554810e-01</leafValues></_>
        <_>
          <internalNodes>
            0 -1 90 3.9815649390220642e-02</internalNodes>
          <leafValues>
            -7.3890066146850586e-01 6.2688857316970825e-01</leafValues></_>
        <_>
          <internalNodes>
            0 -1 18 3.3273220062255859e-02</internalNodes>
          <leafValues>
            -9.0574061870574951e-01 3.5461264848709106e-01</leafValues></_>
        <_>
          <internalNodes>
            0 -1 107 1.7993123037740588e-04</internalNodes>
          <leafValues>
            3.5793977975845337e-01 -8.2777416706085205e-01</leafValues></_>
        <_>
          <internalNodes>
            0 -1 111 9.0542511316016316e-05</internalNodes>
          <leafValues>
            2.8252959251403809e-01 -8.4689396619796753e-01</leafValues></_></weakClassifiers></_>
    <!-- stage 3 -->
    <_>
      <maxWeakCount>7</maxWeakCount>
      <stageThreshold>-1.2127672433853149e+00</stageThreshold>
      <weakClassifiers>
        <_>
          <internalNodes>
            0 -1 34 6.8511471152305603e-02</internalNodes>
          <leafValues>
            -7.3694390058517456e-01 7.2114497423171997e-01</leafValues></_>
        <_>
          <internalNodes>
            0 -1 35 -8.0779911950230598e-03</internalNodes>
          <leafValues>
            4.1245311498641968e-01 -9.0079528093338013e-01</leafValues></_>
        <_>
          <internalNodes>
            0 -1 124 -1.7683842452242970e-04</internalNodes>
          <leafValues>
            -8.3635514974594116e-01 4.3177986145019531e-01</leafValues></_>
        <_>
          <internalNodes>
            0 -1 156 -1.5409562038257718e-03</internalNodes>
          <leafValues>
            4.0316310524940491e-01 -6.3620138168334961e-01</leafValues></_>
        <_>
          <internalNodes>
            0 -1 109 -2.5300454581156373e-04</internalNodes>
          <leafValues>
            -9.5132941007614136e-01 2.8006622195243835e-01</leafValues></_>
        <_>
          <internalNodes>
            0 -1 45 -8.0433615949004889e-05</internalNodes>
          <leafValues>
            2.7641054987907410e-01 -8.7875485420227051e-01</leafValues></_>
        <_>
          <internalNodes>
            0 -1 48 -6.1115897260606289e-03</internalNodes>
          <leafValues>
            2.6494780182838440e-01 -8.1745034456253052e-01</leafValues></_></weakClassifiers></_>
    <!-- stage 4 -->
    <_>
      <maxWeakCount>7</maxWeakCount>
      <stageThreshold>-8.6807906627655029e-01</stageThreshold>
      <weakClassifiers>
        <_>
          <internalNodes>
            0 -1 26 3.2227909564971924e-01</internalNodes>
          <leafValues>
            -5.9531772136688232e-01 7.5449103116989136e-01</leafValues></_>
        <_>
          <internalNodes>
            0 -1 117 -1.7152192594949156e-04</internalNodes>
          <leafValues>
            -9.4939607381820679e-01 3.6103984713554382e-01</leafValues></_>
        <_>
          <internalNodes>
            0 -1 110 3.8705396582372487e-04</internalNodes>
          <leafValues>
            3.2716691493988037e-01 -8.0792099237442017e-01</leafValues></_>
        <_>
          <internalNodes>
            0 -1 155 -2.3051328025758266e-03</internalNodes>
          <leafValues>
            8.4093952178955078e-01 -3.7874481081962585e-01</leafValues></_>
        <_>
          <internalNodes>
            0 -1 121 -1.1800661013694480e-04</internalNodes>
          <leafValues>
            -8.5526800155639648e-01 3.2777917385101318e-01</leafValues></_>
        <_>
          <internalNodes>
            0 -1 80 4.9017779529094696e-03</internalNodes>
          <leafValues>
            -9.5954871177673340e-01 2.4708980321884155e-01</leafValues></_>
        <_>
          <internalNodes>
            0 -1 154 -3.3961396547965705e-04</internalNodes>
          <leafValues>
            -9.9027097225189209e-01 1.5334363281726837e-01</leafValues></_></weakClassifiers></_>
    <!-- stage 5 -->
    <_>
      <maxWeakCount>7</maxWeakCount>
      <stageThreshold>-1.1711527109146118e+00</stageThreshold>
      <weakClassifiers>
        <_>
          <internalNodes>
            0 -1 154 3.1096494058147073e-04</internalNodes>
          <leafValues>
            6.1041140556335449e-01 -7.9951101541519165e-01</leafValues></_>
        <_>
          <internalNodes>
            0 -1 141 2.9270316008478403e-03</internalNodes>
          <leafValues>
            -4.7359585762023926e-01 6.9468975067138672e-01</leafValues></_>
        <_>
          <internalNodes>
            0 -1 62 -2.6636389084160328e-03</internalNodes>
          <leafValues>
            8.2193332910537720e-01 -2.6189568638801575e-01</leafValues></_>
        <_>
          <internalNodes>
            0 -1 21 2.5567036122083664e-02</internalNodes>
          <leafValues>
            -7.8233253955841064e-01 2.9688146710395813e-01</leafValues></_>
        <_>
          <internalNodes>
            0 -1 137 2.1934529650025070e-04</internalNodes>
          <leafValues>
            1.9564089179039001e-01 -1.</leafValues></_>
        <_>
          <internalNodes>
            0 -1 140 -4.3106917291879654e-04</internalNodes>
          <leafValues>
            -9.1780716180801392e-01 2.1253143250942230e-01</leafValues></_>
        <_>
          <internalNodes>
            0 -1 145 8.6445137858390808e-03</internalNodes>
          <leafValues>
            -3.4120398759841919e-01 7.7763110399246216e-01</leafValues></_></weakClassifiers></_>
    <!-- stage 6 -->
    <_>
      <maxWeakCount>9</maxWeakCount>
      <stageThreshold>-1.2813347578048706e+00</stageThreshold>
      <weakClassifiers>
        <_>
          <internalNodes>
            0 -1 116 4.0408765198662877e-04</internalNodes>
          <leafValues>
            6.6226416826248169e-01 -5.5925923585891724e-01</leafValues></_>
        <_>
          <internalNodes>
            0 -1 114 2.1057676523923874e-02</internalNodes>
          <leafValues>
            -6.5535193681716919e-01 4.6327987313270569e-01</leafValues></_>
        <_>
          <internalNodes>
            0 -1 112 3.7240132223814726e-04</internalNodes>
          <leafValues>
            2.7716252207756042e-01 -8.6165809631347656e-01</leafValues></_>
        <_>
          <internalNodes>
            0 -1 134 -1.5434616943821311e-04</internalNodes>
          <leafValues>
            -9.7558718919754028e-01 2.0120842754840851e-01</leafValues></_>
        <_>
          <internalNodes>
            0 -1 139 2.2848125081509352e-04</internalNodes>
          <leafValues>
            2.2896714508533478e-01 -8.5934019088745117e-01</leafValues></_>
        <_>
          <internalNodes>
            0 -1 56 -5.8426922187209129e-03</internalNodes>
          <leafValues>
            1.8113356828689575e-01 -8.6947190761566162e-01</leafValues></_>
        <_>
          <internalNodes>
            0 -1 151 -2.4995808489620686e-03</internalNodes>
          <leafValues>
            7.8225910663604736e-01 -3.1551998853683472e-01</leafValues></_>
        <_>
          <internalNodes>
            0 -1 41 1.0518445633351803e-03</internalNodes>
          <leafValues>
            3.0054098367691040e-01 -7.0351427793502808e-01</leafValues></_>
        <_>
          <internalNodes>
            0 -1 67 4.2585853952914476e-04</internalNodes>
          <leafValues>
            1.9860446453094482e-01 -8.0342102050781250e-01</leafValues></_></weakClassifiers></_>
    <!-- stage 7 -->
    <_>
      <maxWeakCount>8</maxWeakCount>
      <stageThreshold>-1.1587163209915161e+00</stageThreshold>
      <weakClassifiers>
        <_>
          <internalNodes>
            0 -1 14 4.4276542961597443e-02</internalNodes>
          <leafValues>
            -7.5568181276321411e-01 5.3365385532379150e-01</leafValues></_>
        <_>
          <internalNodes>
            0 -1 98 3.0509641510434449e-04</internalNodes>
          <leafValues>
            4.3075305223464966e-01 -5.9453833103179932e-01</leafValues></_>
        <_>
          <internalNodes>
            0 -1 82 8.6549557745456696e-03</internalNodes>
          <leafValues>
            -8.5042500495910645e-01 3.1390663981437683e-01</leafValues></_>
        <_>
          <internalNodes>
            0 -1 150 -5.9862597845494747e-04</internalNodes>
          <leafValues>
            -9.7653162479400635e-01 1.7434202134609222e-01</leafValues></_>
        <_>
          <internalNodes>
            0 -1 60 1.3086638413369656e-02</internalNodes>
          <leafValues>
            -8.8301849365234375e-01 1.4129485189914703e-01</leafValues></_>
        <_>
          <internalNodes>
            0 -1 23 2.3712541908025742e-02</internalNodes>
          <leafValues>
            -7.6114529371261597e-01 2.3564991354942322e-01</leafValues></_>
        <_>
          <internalNodes>
            0 -1 166 -6.1865610769018531e-04</internalNodes>
          <leafValues>
            -8.2932418584823608e-01 1.5609304606914520e-01</leafValues></_>
        <_>
          <internalNodes>
            0 -1 61 -5.9312779922038317e-04</internalNodes>
          <leafValues>
            -8.3066803216934204e-01 1.9453065097332001e-01</leafValues></_></weakClassifiers></_>
    <!-- stage 8 -->
    <_>
      <maxWeakCount>10</maxWeakCount>
      <stageThreshold>-1.0406669378280640e+00</stageThreshold>
      <weakClassifiers>
        <_>
          <internalNodes>
            0 -1 42 2.7269667387008667e-01</internalNodes>
          <leafValues>
            -4.3119266629219055e-01 6.0189574956893921e-01</leafValues></_>
        <_>
          <internalNodes>
            0 -1 99 3.7748832255601883e-04</internalNodes>
          <leafValues>
            4.7456648945808411e-01 -4.7054150700569153e-01</leafValues></_>
        <_>
          <internalNodes>
            0 -1 122 1.4670461496280041e-05</internalNodes>
          <leafValues>
            -7.9739999771118164e-01 2.8777593374252319e-01</leafValues></_>
        <_>
          <internalNodes>
            0 -1 22 8.2185519859194756e-03</internalNodes>
          <leafValues>
            -6.7680954933166504e-01 2.4061819911003113e-01</leafValues></_>
        <_>
          <internalNodes>
            0 -1 80 4.7240443527698517e-03</internalNodes>
          <leafValues>
            -9.7819095849990845e-01 1.3669368624687195e-01</leafValues></_>
        <_>
          <internalNodes>
            0 -1 180 -9.8154917359352112e-03</internalNodes>
          <leafValues>
            -8.5318487882614136e-01 1.4461155235767365e-01</leafValues></_>
        <_>
          <internalNodes>
            0 -1 138 -3.1146593391895294e-04</internalNodes>
          <leafValues>
            -7.7970844507217407e-01 2.0316472649574280e-01</leafValues></_>
        <_>
          <internalNodes>
            0 -1 144 1.1760384040826466e-05</internalNodes>
          <leafValues>
            -5.5630123615264893e-01 3.4374323487281799e-01</leafValues></_>
        <_>
          <internalNodes>
            0 -1 133 -2.0401352958288044e-04</internalNodes>
          <leafValues>
            -9.2343962192535400e-01 1.5713161230087280e-01</leafValues></_>
        <_>
          <internalNodes>
            0 -1 86 -1.3584131920651998e-05</internalNodes>
          <leafValues>
            3.6225745081901550e-01 -4.2964527010917664e-01</leafValues></_></weakClassifiers></_>
    <!-- stage 9 -->
    <_>
      <maxWeakCount>12</maxWeakCount>
      <stageThreshold>-1.1581803560256958e+00</stageThreshold>
      <weakClassifiers>
        <_>
          <internalNodes>
            0 -1 132 -6.8157142959535122e-04</internalNodes>
          <leafValues>
            -6.7845660448074341e-01 4.7401085495948792e-01</leafValues></_>
        <_>
          <internalNodes>
            0 -1 147 -4.1340170428156853e-03</internalNodes>
          <leafValues>
            2.9560112953186035e-01 -7.1026664972305298e-01</leafValues></_>
        <_>
          <internalNodes>
            0 -1 152 -3.5595323424786329e-05</internalNodes>
          <leafValues>
            2.8160488605499268e-01 -5.7911336421966553e-01</leafValues></_>
        <_>
          <internalNodes>
            0 -1 79 -2.8009256348013878e-03</internalNodes>
          <leafValues>
            4.5873314142227173e-01 -3.9685058593750000e-01</leafValues></_>
        <_>
          <internalNodes>
            0 -1 36 1.1888352673850022e-05</internalNodes>
          <leafValues>
            -6.5277057886123657e-01 2.6766204833984375e-01</leafValues></_>
        <_>
          <internalNodes>
            0 -1 47 1.0148066794499755e-03</internalNodes>
          <leafValues>
            3.3758470416069031e-01 -6.0520416498184204e-01</leafValues></_>
        <_>
          <internalNodes>
            0 -1 9 -6.6408202983438969e-03</internalNodes>
          <leafValues>
            1.6366253793239594e-01 -8.1953287124633789e-01</leafValues></_>
        <_>
          <internalNodes>
            0 -1 20 -1.3813025361741893e-05</internalNodes>
          <leafValues>
            3.7259167432785034e-01 -4.0003249049186707e-01</leafValues></_>
        <_>
          <internalNodes>
            0 -1 140 1.8202638602815568e-04</internalNodes>
          <leafValues>
            1.9875055551528931e-01 -7.7281880378723145e-01</leafValues></_>
        <_>
          <internalNodes>
            0 -1 120 1.4935393119230866e-04</internalNodes>
          <leafValues>
            1.2265498936176300e-01 -9.2832136154174805e-01</leafValues></_>
        <_>
          <internalNodes>
            0 -1 128 2.2799947764724493e-03</internalNodes>
          <leafValues>
            -8.7771421670913696e-01 1.2912009656429291e-01</leafValues></_>
        <_>
          <internalNodes>
            0 -1 0 2.5135006580967456e-05</internalNodes>
          <leafValues>
            -3.5452967882156372e-01 4.5204257965087891e-01</leafValues></_></weakClassifiers></_>
    <!-- stage 10 -->
    <_>
      <maxWeakCount>14</maxWeakCount>
      <stageThreshold>-1.1858444213867188e+00</stageThreshold>
      <weakClassifiers>
        <_>
          <internalNodes>
            0 -1 176 -1.4324313960969448e-03</internalNodes>
          <leafValues>
            4.9309504032135010e-01 -5.6097561120986938e-01</leafValues></_>
        <_>
          <internalNodes>
            0 -1 100 2.2896126029081643e-04</internalNodes>
          <leafValues>
            3.5651510953903198e-01 -4.7703775763511658e-01</leafValues></_>
        <_>
          <internalNodes>
            0 -1 75 1.4334632083773613e-02</internalNodes>
          <leafValues>
            -7.3908215761184692e-01 2.5478112697601318e-01</leafValues></_>
        <_>
          <internalNodes>
            0 -1 113 -2.3597928520757705e-04</internalNodes>
          <leafValues>
            -9.0175765752792358e-01 8.2327052950859070e-02</leafValues></_>
        <_>
          <internalNodes>
            0 -1 106 4.6261288225650787e-03</internalNodes>
          <leafValues>
            -5.0597935914993286e-01 2.7177625894546509e-01</leafValues></_>
        <_>
          <internalNodes>
            0 -1 49 2.5838373403530568e-05</internalNodes>
          <leafValues>
            -4.5414060354232788e-01 2.9124698042869568e-01</leafValues></_>
        <_>
          <internalNodes>
            0 -1 46 7.0506479823961854e-04</internalNodes>
          <leafValues>
            2.8851336240768433e-01 -5.4080915451049805e-01</leafValues></_>
        <_>
          <internalNodes>
            0 -1 54 7.1085048839449883e-03</internalNodes>
          <leafValues>
            -7.5082445144653320e-01 1.5502932667732239e-01</leafValues></_>
        <_>
          <internalNodes>
            0 -1 53 -1.6769250854849815e-02</internalNodes>
          <leafValues>
            1.4364561438560486e-01 -8.1525671482086182e-01</leafValues></_>
        <_>
          <internalNodes>
            0 -1 43 -7.1722105145454407e-02</internalNodes>
          <leafValues>
            -8.1723165512084961e-01 1.2069491297006607e-01</leafValues></_>
        <_>
          <internalNodes>
            0 -1 3 -1.1223146691918373e-02</internalNodes>
          <leafValues>
            -7.5838959217071533e-01 1.5490470826625824e-01</leafValues></_>
        <_>
          <internalNodes>
            0 -1 129 9.8868720233440399e-02</internalNodes>
          <leafValues>
            1.5178248286247253e-01 -8.2857024669647217e-01</leafValues></_>
        <_>
          <internalNodes>
            0 -1 162 -1.1672997847199440e-02</internalNodes>
          <leafValues>
            4.7393736243247986e-01 -2.9686525464057922e-01</leafValues></_>
        <_>
          <internalNodes>
            0 -1 93 6.0629481449723244e-03</internalNodes>
          <leafValues>
            -8.0869448184967041e-01 1.6509942710399628e-01</leafValues></_></weakClassifiers></_>
    <!-- stage 11 -->
    <_>
      <maxWeakCount>10</maxWeakCount>
      <stageThreshold>-1.3154098987579346e+00</stageThreshold>
      <weakClassifiers>
        <_>
          <internalNodes>
            0 -1 98 2.5742157595232129e-04</internalNodes>
          <leafValues>
            5.9069764614105225e-01 -4.4761905074119568e-01</leafValues></_>
        <_>
          <internalNodes>
            0 -1 136 2.1512154489755630e-04</internalNodes>
          <leafValues>
            2.7790084481239319e-01 -7.8714191913604736e-01</leafValues></_>
        <_>
          <internalNodes>
            0 -1 83 3.5589164326665923e-05</internalNodes>
          <leafValues>
            -9.2820847034454346e-01 2.2108186781406403e-01</leafValues></_>
        <_>
          <internalNodes>
            0 -1 112 -2.9847939731553197e-04</internalNodes>
          <leafValues>
            -8.9683902263641357e-01 7.5074285268783569e-02</leafValues></_>
        <_>
          <internalNodes>
            0 -1 71 8.9574409648776054e-03</internalNodes>
          <leafValues>
            1.5115906298160553e-01 -8.0791169404983521e-01</leafValues></_>
        <_>
          <internalNodes>
            0 -1 102 2.3517536465078592e-03</internalNodes>
          <leafValues>
            2.5715178251266479e-01 -5.9335488080978394e-01</leafValues></_>
        <_>
          <internalNodes>
            0 -1 52 1.4666959941678215e-05</internalNodes>
          <leafValues>
            -5.1228493452072144e-01 2.6322630047798157e-01</leafValues></_>
        <_>
          <internalNodes>
            0 -1 143 -1.2802019773516804e-04</internalNodes>
          <leafValues>
            -6.6884297132492065e-01 2.2163908183574677e-01</leafValues></_>
        <_>
          <internalNodes>
            0 -1 125 1.6907639292185195e-05</internalNodes>
          <leafValues>
            -8.1892323493957520e-01 1.5368615090847015e-01</leafValues></_>
        <_>
          <internalNodes>
            0 -1 173 1.3882450293749571e-03</internalNodes>
          <leafValues>
            1.3664314150810242e-01 -8.0215388536453247e-01</leafValues></_></weakClassifiers></_>
    <!-- stage 12 -->
    <_>
      <maxWeakCount>12</maxWeakCount>
      <stageThreshold>-1.3822091817855835e+00</stageThreshold>
      <weakClassifiers>
        <_>
          <internalNodes>
            0 -1 55 1.0562818715698086e-05</internalNodes>
          <leafValues>
            -4.3951612710952759e-01 5.5978262424468994e-01</leafValues></_>
        <_>
          <internalNodes>
            0 -1 164 1.3584131920651998e-05</internalNodes>
          <leafValues>
            -6.8079030513763428e-01 3.0562272667884827e-01</leafValues></_>
        <_>
          <internalNodes>
            0 -1 151 -4.0791350329527631e-05</internalNodes>
          <leafValues>
            2.9983586072921753e-01 -5.3054153919219971e-01</leafValues></_>
        <_>
          <internalNodes>
            0 -1 39 1.2394855730235577e-05</internalNodes>
          <leafValues>
            -5.1578319072723389e-01 3.0193355679512024e-01</leafValues></_>
        <_>
          <internalNodes>
            0 -1 39 6.3671008683741093e-04</internalNodes>
          <leafValues>
            3.0068507790565491e-01 -4.9346792697906494e-01</leafValues></_>
        <_>
          <internalNodes>
            0 -1 157 -4.2534209787845612e-03</internalNodes>
          <leafValues>
            3.4523552656173706e-01 -4.5304691791534424e-01</leafValues></_>
        <_>
          <internalNodes>
            0 -1 28 7.3148090450558811e-05</internalNodes>
          <leafValues>
            -5.3898185491561890e-01 2.5170519948005676e-01</leafValues></_>
        <_>
          <internalNodes>
            0 -1 25 1.1706028599292040e-03</internalNodes>
          <leafValues>
            1.9618126749992371e-01 -7.8726029396057129e-01</leafValues></_>
        <_>
          <internalNodes>
            0 -1 170 4.1448678530286998e-05</internalNodes>
          <leafValues>
            -3.7898218631744385e-01 3.7050566077232361e-01</leafValues></_>
        <_>
          <internalNodes>
            0 -1 142 -2.0014871552120894e-04</internalNodes>
          <leafValues>
            -7.9487001895904541e-01 1.6825971007347107e-01</leafValues></_>
        <_>
          <internalNodes>
            0 -1 6 3.6617555451812223e-05</internalNodes>
          <leafValues>
            -3.2619842886924744e-01 4.0529769659042358e-01</leafValues></_>
        <_>
          <internalNodes>
            0 -1 148 7.3506664193700999e-05</internalNodes>
          <leafValues>
            -8.4758913516998291e-01 2.0397210121154785e-01</leafValues></_></weakClassifiers></_>
    <!-- stage 13 -->
    <_>
      <maxWeakCount>11</maxWeakCount>
      <stageThreshold>-1.0878351926803589e+00</stageThreshold>
      <weakClassifiers>
        <_>
          <internalNodes>
            0 -1 24 -4.7873938456177711e-04</internalNodes>
          <leafValues>
            4.0836942195892334e-01 -7.7570092678070068e-01</leafValues></_>
        <_>
          <internalNodes>
            0 -1 49 1.0562818715698086e-05</internalNodes>
          <leafValues>
            -4.7536331415176392e-01 3.4174445271492004e-01</leafValues></_>
        <_>
          <internalNodes>
            0 -1 175 2.7214731089770794e-03</internalNodes>
          <leafValues>
            -4.5146492123603821e-01 3.6549863219261169e-01</leafValues></_>
        <_>
          <internalNodes>
            0 -1 104 2.2268870379775763e-03</internalNodes>
          <leafValues>
            -9.1634368896484375e-01 1.3824747502803802e-01</leafValues></_>
        <_>
          <internalNodes>
            0 -1 179 -1.3074986636638641e-03</internalNodes>
          <leafValues>
            -8.0304515361785889e-01 1.4411991834640503e-01</leafValues></_>
        <_>
          <internalNodes>
            0 -1 12 2.5828867364907637e-05</internalNodes>
          <leafValues>
            -3.2663935422897339e-01 3.9354848861694336e-01</leafValues></_>
        <_>
          <internalNodes>
            0 -1 115 -1.6344348841812462e-04</internalNodes>
          <leafValues>
            -9.7199255228042603e-01 1.2588503956794739e-01</leafValues></_>
        <_>
          <internalNodes>
            0 -1 77 2.6566369342617691e-05</internalNodes>
          <leafValues>
            -6.5715646743774414e-01 1.8207861483097076e-01</leafValues></_>
        <_>
          <internalNodes>
            0 -1 62 -2.1523460745811462e-03</internalNodes>
          <leafValues>
            4.4561690092086792e-01 -3.3199399709701538e-01</leafValues></_>
        <_>
          <internalNodes>
            0 -1 97 1.2905477888125461e-05</internalNodes>
          <leafValues>
            -6.4276713132858276e-01 2.5963097810745239e-01</leafValues></_>
        <_>
          <internalNodes>
            0 -1 95 6.2499396502971649e-02</internalNodes>
          <leafValues>
            1.4169308543205261e-01 -8.7410271167755127e-01</leafValues></_></weakClassifiers></_>
    <!-- stage 14 -->
    <_>
      <maxWeakCount>11</maxWeakCount>
      <stageThreshold>-9.3798673152923584e-01</stageThreshold>
      <weakClassifiers>
        <_>
          <internalNodes>
            0 -1 70 7.2310474934056401e-04</internalNodes>
          <leafValues>
            4.9623429775238037e-01 -4.7654321789741516e-01</leafValues></_>
        <_>
          <internalNodes>
            0 -1 123 2.0631746156141162e-04</internalNodes>
          <leafValues>
            2.3683400452136993e-01 -8.0568683147430420e-01</leafValues></_>
        <_>
          <internalNodes>
            0 -1 70 -8.8553421664983034e-04</internalNodes>
          <leafValues>
            -6.3681066036224365e-01 2.4806439876556396e-01</leafValues></_>
        <_>
          <internalNodes>
            0 -1 123 -1.0243825090583414e-04</internalNodes>
          <leafValues>
            -8.0005186796188354e-01 1.7778608202934265e-01</leafValues></_>
        <_>
          <internalNodes>
            0 -1 33 2.2009445820003748e-03</internalNodes>
          <leafValues>
            1.4126816391944885e-01 -7.3879790306091309e-01</leafValues></_>
        <_>
          <internalNodes>
            0 -1 37 -4.1994685307145119e-04</internalNodes>
          <leafValues>
            -6.8729746341705322e-01 2.2825579345226288e-01</leafValues></_>
        <_>
          <internalNodes>
            0 -1 151 -2.7770714368671179e-03</internalNodes>
          <leafValues>
            5.2229410409927368e-01 -3.3606541156768799e-01</leafValues></_>
        <_>
          <internalNodes>
            0 -1 13 -2.9931526631116867e-02</internalNodes>
          <leafValues>
            -8.4496867656707764e-01 2.1834929287433624e-01</leafValues></_>
        <_>
          <internalNodes>
            0 -1 5 1.4641565212514251e-04</internalNodes>
          <leafValues>
            -9.5065349340438843e-01 1.0470467805862427e-01</leafValues></_>
        <_>
          <internalNodes>
            0 -1 58 2.6899011572822928e-04</internalNodes>
          <leafValues>
            2.4251340329647064e-01 -5.3988206386566162e-01</leafValues></_>
        <_>
          <internalNodes>
            0 -1 143 1.2303500261623412e-04</internalNodes>
          <leafValues>
            1.4701774716377258e-01 -1.</leafValues></_></weakClassifiers></_>
    <!-- stage 15 -->
    <_>
      <maxWeakCount>12</maxWeakCount>
      <stageThreshold>-1.2364656925201416e+00</stageThreshold>
      <weakClassifiers>
        <_>
          <internalNodes>
            0 -1 4 1.3999722898006439e-01</internalNodes>
          <leafValues>
            4.2131978273391724e-01 -8.1900453567504883e-01</leafValues></_>
        <_>
          <internalNodes>
            0 -1 153 2.2602087119594216e-04</internalNodes>
          <leafValues>
            3.4645763039588928e-01 -4.7620281577110291e-01</leafValues></_>
        <_>
          <internalNodes>
            0 -1 149 5.4836701601743698e-03</internalNodes>
          <leafValues>
            -8.4756571054458618e-01 1.8553341925144196e-01</leafValues></_>
        <_>
          <internalNodes>
            0 -1 182 2.9680700972676277e-03</internalNodes>
          <leafValues>
            -1.9675961136817932e-01 8.0189281702041626e-01</leafValues></_>
        <_>
          <internalNodes>
            0 -1 72 8.4576569497585297e-04</internalNodes>
          <leafValues>
            2.2905911505222321e-01 -5.8756357431411743e-01</leafValues></_>
        <_>
          <internalNodes>
            0 -1 108 2.1472343360073864e-04</internalNodes>
          <leafValues>
            1.9246421754360199e-01 -7.9133945703506470e-01</leafValues></_>
        <_>
          <internalNodes>
            0 -1 88 8.8841933757066727e-04</internalNodes>
          <leafValues>
            2.4842540919780731e-01 -5.6611609458923340e-01</leafValues></_>
        <_>
          <internalNodes>
            0 -1 29 1.1887229979038239e-02</internalNodes>
          <leafValues>
            -7.4519795179367065e-01 1.7323654890060425e-01</leafValues></_>
        <_>
          <internalNodes>
            0 -1 76 2.3051365860737860e-04</internalNodes>
          <leafValues>
            3.2841032743453979e-01 -4.4293189048767090e-01</leafValues></_>
        <_>
          <internalNodes>
            0 -1 182 -2.3412001319229603e-03</internalNodes>
          <leafValues>
            7.6379328966140747e-01 -1.9288401305675507e-01</leafValues></_>
        <_>
          <internalNodes>
            0 -1 108 -1.3713185035157949e-04</internalNodes>
          <leafValues>
            -9.0068745613098145e-01 2.0751564204692841e-01</leafValues></_>
        <_>
          <internalNodes>
            0 -1 82 9.3137882649898529e-03</internalNodes>
          <leafValues>
            -7.3417210578918457e-01 1.5882034599781036e-01</leafValues></_></weakClassifiers></_>
    <!-- stage 16 -->
    <_>
      <maxWeakCount>14</maxWeakCount>
      <stageThreshold>-1.0183780193328857e+00</stageThreshold>
      <weakClassifiers>
        <_>
          <internalNodes>
            0 -1 85 -3.2153518986888230e-04</internalNodes>
          <leafValues>
            -8.3815026283264160e-01 3.8192009925842285e-01</leafValues></_>
        <_>
          <internalNodes>
            0 -1 160 -7.6003195717930794e-03</internalNodes>
          <leafValues>
            2.0150829851627350e-01 -7.7794444561004639e-01</leafValues></_>
        <_>
          <internalNodes>
            0 -1 99 2.9359187465161085e-04</internalNodes>
          <leafValues>
            2.1939553320407867e-01 -4.7701653838157654e-01</leafValues></_>
        <_>
          <internalNodes>
            0 -1 15 1.7658658325672150e-02</internalNodes>
          <leafValues>
            1.9690573215484619e-01 -7.7670127153396606e-01</leafValues></_>
        <_>
          <internalNodes>
            0 -1 50 -1.1158794164657593e-02</internalNodes>
          <leafValues>
            2.6818269491195679e-01 -4.3951448798179626e-01</leafValues></_>
        <_>
          <internalNodes>
            0 -1 163 -4.7926995903253555e-03</internalNodes>
          <leafValues>
            -4.9157437682151794e-01 2.5981834530830383e-01</leafValues></_>
        <_>
          <internalNodes>
            0 -1 84 4.6553825959563255e-03</internalNodes>
          <leafValues>
            -8.1510639190673828e-01 1.2045483291149139e-01</leafValues></_>
        <_>
          <internalNodes>
            0 -1 183 7.3416270315647125e-03</internalNodes>
          <leafValues>
            -3.2753059267997742e-01 3.3551722764968872e-01</leafValues></_>
        <_>
          <internalNodes>
            0 -1 118 -4.0576700121164322e-03</internalNodes>
          <leafValues>
            1.2497498095035553e-01 -6.9021439552307129e-01</leafValues></_>
        <_>
          <internalNodes>
            0 -1 169 2.6239365979563445e-05</internalNodes>
          <leafValues>
            -3.3957517147064209e-01 3.5008579492568970e-01</leafValues></_>
        <_>
          <internalNodes>
            0 -1 127 1.3780482113361359e-01</internalNodes>
          <leafValues>
            1.3722430169582367e-01 -9.1691899299621582e-01</leafValues></_>
        <_>
          <internalNodes>
            0 -1 87 -2.8564371168613434e-03</internalNodes>
          <leafValues>
            3.4177580475807190e-01 -3.4867241978645325e-01</leafValues></_>
        <_>
          <internalNodes>
            0 -1 73 -1.0562818715698086e-05</internalNodes>
          <leafValues>
            3.7019571661949158e-01 -3.2980096340179443e-01</leafValues></_>
        <_>
          <internalNodes>
            0 -1 174 1.3412055373191833e-01</internalNodes>
          <leafValues>
            1.4841966331005096e-01 -9.3828719854354858e-01</leafValues></_></weakClassifiers></_>
    <!-- stage 17 -->
    <_>
      <maxWeakCount>16</maxWeakCount>
      <stageThreshold>-1.3425278663635254e+00</stageThreshold>
      <weakClassifiers>
        <_>
          <internalNodes>
            0 -1 40 6.1361689586192369e-04</internalNodes>
          <leafValues>
            4.0356081724166870e-01 -5.7142859697341919e-01</leafValues></_>
        <_>
          <internalNodes>
            0 -1 7 -3.4670757595449686e-03</internalNodes>
          <leafValues>
            3.1578093767166138e-01 -3.9378300309181213e-01</leafValues></_>
        <_>
          <internalNodes>
            0 -1 159 1.2940989108756185e-03</internalNodes>
          <leafValues>
            1.8300658464431763e-01 -7.7218866348266602e-01</leafValues></_>
        <_>
          <internalNodes>
            0 -1 177 -7.6191325206309557e-04</internalNodes>
          <leafValues>
            -6.4003843069076538e-01 1.7156147956848145e-01</leafValues></_>
        <_>
          <internalNodes>
            0 -1 10 -3.5412384022492915e-05</internalNodes>
          <leafValues>
            3.4287551045417786e-01 -3.6386463046073914e-01</leafValues></_>
        <_>
          <internalNodes>
            0 -1 181 -4.9692168831825256e-02</internalNodes>
          <leafValues>
            -6.7764747142791748e-01 1.8789450824260712e-01</leafValues></_>
        <_>
          <internalNodes>
            0 -1 30 9.0110395103693008e-03</internalNodes>
          <leafValues>
            -7.4753987789154053e-01 1.5144750475883484e-01</leafValues></_>
        <_>
          <internalNodes>
            0 -1 63 -3.4952253918163478e-04</internalNodes>
          <leafValues>
            -5.5809086561203003e-01 2.0817999541759491e-01</leafValues></_>
        <_>
          <internalNodes>
            0 -1 172 1.3951316941529512e-04</internalNodes>
          <leafValues>
            -4.2247766256332397e-01 2.6526513695716858e-01</leafValues></_>
        <_>
          <internalNodes>
            0 -1 92 5.9343390166759491e-03</internalNodes>
          <leafValues>
            -6.5357023477554321e-01 2.0384152233600616e-01</leafValues></_>
        <_>
          <internalNodes>
            0 -1 51 3.3391632139682770e-02</internalNodes>
          <leafValues>
            -2.4028389155864716e-01 6.3989382982254028e-01</leafValues></_>
        <_>
          <internalNodes>
            0 -1 146 -3.9328914135694504e-03</internalNodes>
          <leafValues>
            5.2902454137802124e-01 -2.6379227638244629e-01</leafValues></_>
        <_>
          <internalNodes>
            0 -1 1 -4.1900151700247079e-05</internalNodes>
          <leafValues>
            4.2118382453918457e-01 -2.6882463693618774e-01</leafValues></_>
        <_>
          <internalNodes>
            0 -1 89 -3.6470226477831602e-03</internalNodes>
          <leafValues>
            -6.3996517658233643e-01 1.8125350773334503e-01</leafValues></_>
        <_>
          <internalNodes>
            0 -1 8 -1.9152445020154119e-03</internalNodes>
          <leafValues>
            5.4377758502960205e-01 -2.0348252356052399e-01</leafValues></_>
        <_>
          <internalNodes>
            0 -1 126 -1.0270832106471062e-02</internalNodes>
          <leafValues>
            -6.8671101331710815e-01 1.6121062636375427e-01</leafValues></_></weakClassifiers></_>
    <!-- stage 18 -->
    <_>
      <maxWeakCount>15</maxWeakCount>
      <stageThreshold>-8.0172616243362427e-01</stageThreshold>
      <weakClassifiers>
        <_>
          <internalNodes>
            0 -1 38 9.2692713951691985e-04</internalNodes>
          <leafValues>
            3.6680614948272705e-01 -7.5903612375259399e-01</leafValues></_>
        <_>
          <internalNodes>
            0 -1 131 -2.4309216532856226e-03</internalNodes>
          <leafValues>
            1.7934815585613251e-01 -8.1580889225006104e-01</leafValues></_>
        <_>
          <internalNodes>
            0 -1 158 -1.1744439601898193e-02</internalNodes>
          <leafValues>
            -6.9696956872940063e-01 9.9454790353775024e-02</leafValues></_>
        <_>
          <internalNodes>
            0 -1 105 6.7087225615978241e-03</internalNodes>
          <leafValues>
            -2.8496709465980530e-01 3.9136904478073120e-01</leafValues></_>
        <_>
          <internalNodes>
            0 -1 2 4.1247244924306870e-02</internalNodes>
          <leafValues>
            1.5404604375362396e-01 -7.2526079416275024e-01</leafValues></_>
        <_>
          <internalNodes>
            0 -1 66 1.0562818715698086e-05</internalNodes>
          <leafValues>
            -5.2887678146362305e-01 2.2682602703571320e-01</leafValues></_>
        <_>
          <internalNodes>
            0 -1 167 5.2468240028247237e-04</internalNodes>
          <leafValues>
            1.4050559699535370e-01 -6.5990781784057617e-01</leafValues></_>
        <_>
          <internalNodes>
            0 -1 165 2.5570388970663771e-05</internalNodes>
          <leafValues>
            -6.2534213066101074e-01 1.5937566757202148e-01</leafValues></_>
        <_>
          <internalNodes>
            0 -1 145 9.3499338254332542e-03</internalNodes>
          <leafValues>
            -2.6543867588043213e-01 4.7166484594345093e-01</leafValues></_>
        <_>
          <internalNodes>
            0 -1 161 -1.3675321497430559e-05</internalNodes>
          <leafValues>
            2.4173179268836975e-01 -4.5530867576599121e-01</leafValues></_>
        <_>
          <internalNodes>
            0 -1 19 3.4381449222564697e-03</internalNodes>
          <leafValues>
            9.5961332321166992e-02 -9.1362917423248291e-01</leafValues></_>
        <_>
          <internalNodes>
            0 -1 94 -7.0513502578251064e-05</internalNodes>
          <leafValues>
            3.3508077263832092e-01 -3.2775926589965820e-01</leafValues></_>
        <_>
          <internalNodes>
            0 -1 130 -1.2620621419046074e-04</internalNodes>
          <leafValues>
            -9.6971100568771362e-01 1.2571883201599121e-01</leafValues></_>
        <_>
          <internalNodes>
            0 -1 178 -6.6441059112548828e-02</internalNodes>
          <leafValues>
            7.1259480714797974e-01 -1.8628996610641479e-01</leafValues></_>
        <_>
          <internalNodes>
            0 -1 11 -2.6822302970685996e-05</internalNodes>
          <leafValues>
            3.8351455330848694e-01 -2.8242483735084534e-01</leafValues></_></weakClassifiers></_>
    <!-- stage 19 -->
    <_>
      <maxWeakCount>18</maxWeakCount>
      <stageThreshold>-1.1517143249511719e+00</stageThreshold>
      <weakClassifiers>
        <_>
          <internalNodes>
            0 -1 96 2.4167331866919994e-04</internalNodes>
          <leafValues>
            4.7043249011039734e-01 -2.8479656577110291e-01</leafValues></_>
        <_>
          <internalNodes>
            0 -1 81 8.8801048696041107e-03</internalNodes>
          <leafValues>
            -6.0912352800369263e-01 2.0723514258861542e-01</leafValues></_>
        <_>
          <internalNodes>
            0 -1 119 -7.8135356307029724e-03</internalNodes>
          <leafValues>
            1.3318943977355957e-01 -7.8455036878585815e-01</leafValues></_>
        <_>
          <internalNodes>
            0 -1 168 5.5978032760322094e-03</internalNodes>
          <leafValues>
            -2.8677043318748474e-01 3.7208086252212524e-01</leafValues></_>
        <_>
          <internalNodes>
            0 -1 171 -1.4438845028053038e-05</internalNodes>
          <leafValues>
            2.3197117447853088e-01 -4.5326685905456543e-01</leafValues></_>
        <_>
          <internalNodes>
            0 -1 121 -1.1888534936588258e-04</internalNodes>
          <leafValues>
            -6.7711734771728516e-01 1.5177825093269348e-01</leafValues></_>
        <_>
          <internalNodes>
            0 -1 69 -1.1149920523166656e-02</internalNodes>
          <leafValues>
            -8.9010012149810791e-01 9.9425695836544037e-02</leafValues></_>
        <_>
          <internalNodes>
            0 -1 32 -5.5538213928230107e-05</internalNodes>
          <leafValues>
            2.2674210369586945e-01 -4.0086558461189270e-01</leafValues></_>
        <_>
          <internalNodes>
            0 -1 27 -6.6161610186100006e-02</internalNodes>
          <leafValues>
            -8.0422800779342651e-01 9.7778081893920898e-02</leafValues></_>
        <_>
          <internalNodes>
            0 -1 78 2.8986121833440848e-05</internalNodes>
          <leafValues>
            -6.3768702745437622e-01 1.5594634413719177e-01</leafValues></_>
        <_>
          <internalNodes>
            0 -1 31 -3.6633937270380557e-05</internalNodes>
          <leafValues>
            2.5680479407310486e-01 -3.9413404464721680e-01</leafValues></_>
        <_>
          <internalNodes>
            0 -1 68 -4.7851528506726027e-04</internalNodes>
          <leafValues>
            -4.8169121146202087e-01 2.0656259357929230e-01</leafValues></_>
        <_>
          <internalNodes>
            0 -1 135 -2.9506746679544449e-02</internalNodes>
          <leafValues>
            -7.5172376632690430e-01 1.1456537991762161e-01</leafValues></_>
        <_>
          <internalNodes>
            0 -1 103 -1.0048896074295044e-03</internalNodes>
          <leafValues>
            -5.8374774456024170e-01 1.5058179199695587e-01</leafValues></_>
        <_>
          <internalNodes>
            0 -1 17 -3.1508468964602798e-05</internalNodes>
          <leafValues>
            2.8741103410720825e-01 -3.2600301504135132e-01</leafValues></_>
        <_>
          <internalNodes>
            0 -1 101 1.1845920234918594e-03</internalNodes>
          <leafValues>
            4.0189832448959351e-01 -2.5960856676101685e-01</leafValues></_>
        <_>
          <internalNodes>
            0 -1 44 -5.5091857910156250e-02</internalNodes>
          <leafValues>
            -8.4655261039733887e-01 1.1574193835258484e-01</leafValues></_>
        <_>
          <internalNodes>
            0 -1 16 -3.6865309084532782e-05</internalNodes>
          <leafValues>
            2.4203765392303467e-01 -3.9745458960533142e-01</leafValues></_></weakClassifiers></_></stages>
  <features>
    <_>
      <rects>
        <_>
          0 0 1 2 -1.</_>
        <_>
          0 1 1 1 2.</_></rects>
      <tilted>0</tilted></_>
    <_>
      <rects>
        <_>
          2 9 3 1 -1.</_>
        <_>
          3 9 1 1 3.</_></rects>
      <tilted>0</tilted></_>
    <_>
      <rects>
        <_>
          2 10 12 2 -1.</_>
        <_>
          8 10 6 2 2.</_></rects>
      <tilted>0</tilted></_>
    <_>
      <rects>
        <_>
          2 10 15 6 -1.</_>
        <_>
          2 12 15 2 3.</_></rects>
      <tilted>0</tilted></_>
    <_>
      <rects>
        <_>
          2 11 14 9 -1.</_>
        <_>
          9 11 7 9 2.</_></rects>
      <tilted>0</tilted></_>
    <_>
      <rects>
        <_>
          2 11 16 4 -1.</_>
        <_>
          10 11 8 4 2.</_></rects>
      <tilted>0</tilted></_>
    <_>
      <rects>
        <_>
          3 5 1 2 -1.</_>
        <_>
          3 6 1 1 2.</_></rects>
      <tilted>0</tilted></_>
    <_>
      <rects>
        <_>
          3 7 6 3 -1.</_>
        <_>
          5 8 2 1 9.</_></rects>
      <tilted>0</tilted></_>
    <_>
      <rects>
        <_>
          3 9 3 1 -1.</_>
        <_>
          4 9 1 1 3.</_></rects>
      <tilted>0</tilted></_>
    <_>
      <rects>
        <_>
          3 9 14 8 -1.</_>
        <_>
          3 13 14 4 2.</_></rects>
      <tilted>0</tilted></_>
    <_>
      <rects>
        <_>
          3 13 3 1 -1.</_>
        <_>
          4 13 1 1 3.</_></rects>
      <tilted>0</tilted></_>
    <_>
      <rects>
        <_>
          3 15 3 1 -1.</_>
        <_>
          4 15 1 1 3.</_></rects>
      <tilted>0</tilted></_>
    <_>
      <rects>
        <_>
          4 0 1 2 -1.</_>
        <_>
          4 1 1 1 2.</_></rects>
      <tilted>0</tilted></_>
    <_>
      <rects>
        <_>
          4 6 5 10 -1.</_>
        <_>
          4 11 5 5 2.</_></rects>
      <tilted>0</tilted></_>
    <_>
      <rects>
        <_>
          4 6 10 8 -1.</_>
        <_>
          9 6 5 8 2.</_></rects>
      <tilted>0</tilted></_>
    <_>
      <rects>
        <_>
          4 7 5 9 -1.</_>
        <_>
          4 10 5 3 3.</_></rects>
      <tilted>0</tilted></_>
    <_>
      <rects>
        <_>
          4 8 3 1 -1.</_>
        <_>
          5 9 1 1 3.</_></rects>
      <tilted>1</tilted></_>
    <_>
      <rects>
        <_>
          4 9 3 1 -1.</_>
        <_>
          5 9 1 1 3.</_></rects>
      <tilted>0</tilted></_>
    <_>
      <rects>
        <_>
          4 9 10 6 -1.</_>
        <_>
          9 9 5 6 2.</_></rects>
      <tilted>0</tilted></_>
    <_>
      <rects>
        <_>
          4 9 13 6 -1.</_>
        <_>
          4 12 13 3 2.</_></rects>
      <tilted>0</tilted></_>
    <_>
      <rects>
        <_>
          4 10 3 1 -1.</_>
        <_>
          5 10 1 1 3.</_></rects>
      <tilted>0</tilted></_>
    <_>
      <rects>
        <_>
          5 4 12 12 -1.</_>
        <_>
          5 8 12 4 3.</_></rects>
      <tilted>0</tilted></_>
    <_>
      <rects>
        <_>
          5 5 13 9 -1.</_>
        <_>
          5 8 13 3 3.</_></rects>
      <tilted>0</tilted></_>
    <_>
      <rects>
        <_>
          5 5 19 12 -1.</_>
        <_>
          5 8 19 6 2.</_></rects>
      <tilted>0</tilted></_>
    <_>
      <rects>
        <_>
          5 8 13 8 -1.</_>
        <_>
          5 12 13 4 2.</_></rects>
      <tilted>0</tilted></_>
    <_>
      <rects>
        <_>
          5 11 3 3 -1.</_>
        <_>
          6 12 1 1 9.</_></rects>
      <tilted>0</tilted></_>
    <_>
      <rects>
        <_>
          6 4 12 15 -1.</_>
        <_>
          10 9 4 5 9.</_></rects>
      <tilted>0</tilted></_>
    <_>
      <rects>
        <_>
          6 4 10 2 -1.</_>
        <_>
          6 4 5 2 2.</_></rects>
      <tilted>1</tilted></_>
    <_>
      <rects>
        <_>
          6 5 4 4 -1.</_>
        <_>
          6 5 2 2 2.</_>
        <_>
          8 7 2 2 2.</_></rects>
      <tilted>0</tilted></_>
    <_>
      <rects>
        <_>
          6 5 7 15 -1.</_>
        <_>
          6 10 7 5 3.</_></rects>
      <tilted>0</tilted></_>
    <_>
      <rects>
        <_>
          6 5 11 6 -1.</_>
        <_>
          6 8 11 3 2.</_></rects>
      <tilted>0</tilted></_>
    <_>
      <rects>
        <_>
          6 7 3 1 -1.</_>
        <_>
          7 8 1 1 3.</_></rects>
      <tilted>1</tilted></_>
    <_>
      <rects>
        <_>
          6 8 3 3 -1.</_>
        <_>
          7 9 1 1 9.</_></rects>
      <tilted>0</tilted></_>
    <_>
      <rects>
        <_>
          6 9 3 9 -1.</_>
        <_>
          7 12 1 3 9.</_></rects>
      <tilted>0</tilted></_>
    <_>
      <rects>
        <_>
          6 9 12 5 -1.</_>
        <_>
          10 9 4 5 3.</_></rects>
      <tilted>0</tilted></_>
    <_>
      <rects>
        <_>
          6 9 12 8 -1.</_>
        <_>
          6 13 12 4 2.</_></rects>
      <tilted>0</tilted></_>
    <_>
      <rects>
        <_>
          6 12 4 1 -1.</_>
        <_>
          8 12 2 1 2.</_></rects>
      <tilted>0</tilted></_>
    <_>
      <rects>
        <_>
          6 13 3 1 -1.</_>
        <_>
          7 13 1 1 3.</_></rects>
      <tilted>0</tilted></_>
    <_>
      <rects>
        <_>
          6 13 2 3 -1.</_>
        <_>
          6 14 2 1 3.</_></rects>
      <tilted>0</tilted></_>
    <_>
      <rects>
        <_>
          6 14 4 1 -1.</_>
        <_>
          8 14 2 1 2.</_></rects>
      <tilted>0</tilted></_>
    <_>
      <rects>
        <_>
          6 14 3 2 -1.</_>
        <_>
          6 15 3 1 2.</_></rects>
      <tilted>0</tilted></_>
    <_>
      <rects>
        <_>
          6 15 6 2 -1.</_>
        <_>
          8 15 2 2 3.</_></rects>
      <tilted>0</tilted></_>
    <_>
      <rects>
        <_>
          7 3 9 18 -1.</_>
        <_>
          10 9 3 6 9.</_></rects>
      <tilted>0</tilted></_>
    <_>
      <rects>
        <_>
          7 4 10 3 -1.</_>
        <_>
          7 4 5 3 2.</_></rects>
      <tilted>1</tilted></_>
    <_>
      <rects>
        <_>
          7 4 8 14 -1.</_>
        <_>
          7 11 8 7 2.</_></rects>
      <tilted>0</tilted></_>
    <_>
      <rects>
        <_>
          7 8 9 8 -1.</_>
        <_>
          7 12 9 4 2.</_></rects>
      <tilted>0</tilted></_>
    <_>
      <rects>
        <_>
          7 12 2 4 -1.</_>
        <_>
          8 12 1 4 2.</_></rects>
      <tilted>0</tilted></_>
    <_>
      <rects>
        <_>
          7 12 2 5 -1.</_>
        <_>
          8 12 1 5 2.</_></rects>
      <tilted>0</tilted></_>
    <_>
      <rects>
        <_>
          7 12 6 6 -1.</_>
        <_>
          7 12 3 3 2.</_>
        <_>
          10 15 3 3 2.</_></rects>
      <tilted>0</tilted></_>
    <_>
      <rects>
        <_>
          7 13 2 3 -1.</_>
        <_>
          8 13 1 3 2.</_></rects>
      <tilted>0</tilted></_>
    <_>
      <rects>
        <_>
          7 14 9 6 -1.</_>
        <_>
          7 16 9 2 3.</_></rects>
      <tilted>0</tilted></_>
    <_>
      <rects>
        <_>
          7 16 11 8 -1.</_>
        <_>
          7 18 11 4 2.</_></rects>
      <tilted>0</tilted></_>
    <_>
      <rects>
        <_>
          8 4 2 6 -1.</_>
        <_>
          8 4 1 3 2.</_>
        <_>
          9 7 1 3 2.</_></rects>
      <tilted>0</tilted></_>
    <_>
      <rects>
        <_>
          8 5 8 4 -1.</_>
        <_>
          8 5 4 4 2.</_></rects>
      <tilted>1</tilted></_>
    <_>
      <rects>
        <_>
          8 5 11 4 -1.</_>
        <_>
          8 5 11 2 2.</_></rects>
      <tilted>1</tilted></_>
    <_>
      <rects>
        <_>
          8 8 2 2 -1.</_>
        <_>
          9 8 1 2 2.</_></rects>
      <tilted>0</tilted></_>
    <_>
      <rects>
        <_>
          8 8 4 14 -1.</_>
        <_>
          8 8 2 7 2.</_>
        <_>
          10 15 2 7 2.</_></rects>
      <tilted>0</tilted></_>
    <_>
      <rects>
        <_>
          8 8 9 7 -1.</_>
        <_>
          11 8 3 7 3.</_></rects>
      <tilted>0</tilted></_>
    <_>
      <rects>
        <_>
          8 10 2 1 -1.</_>
        <_>
          9 10 1 1 2.</_></rects>
      <tilted>0</tilted></_>
    <_>
      <rects>
        <_>
          8 11 8 3 -1.</_>
        <_>
          10 11 4 3 2.</_></rects>
      <tilted>0</tilted></_>
    <_>
      <rects>
        <_>
          8 11 8 9 -1.</_>
        <_>
          10 11 4 9 2.</_></rects>
      <tilted>0</tilted></_>
    <_>
      <rects>
        <_>
          8 12 1 2 -1.</_>
        <_>
          8 13 1 1 2.</_></rects>
      <tilted>0</tilted></_>
    <_>
      <rects>
        <_>
          8 12 3 1 -1.</_>
        <_>
          9 12 1 1 3.</_></rects>
      <tilted>0</tilted></_>
    <_>
      <rects>
        <_>
          8 12 1 4 -1.</_>
        <_>
          8 14 1 2 2.</_></rects>
      <tilted>0</tilted></_>
    <_>
      <rects>
        <_>
          8 12 9 1 -1.</_>
        <_>
          11 12 3 1 3.</_></rects>
      <tilted>0</tilted></_>
    <_>
      <rects>
        <_>
          8 12 11 6 -1.</_>
        <_>
          8 15 11 3 2.</_></rects>
      <tilted>0</tilted></_>
    <_>
      <rects>
        <_>
          8 13 2 2 -1.</_>
        <_>
          9 13 1 2 2.</_></rects>
      <tilted>0</tilted></_>
    <_>
      <rects>
        <_>
          8 14 2 1 -1.</_>
        <_>
          8 14 1 1 2.</_></rects>
      <tilted>1</tilted></_>
    <_>
      <rects>
        <_>
          8 14 2 4 -1.</_>
        <_>
          8 14 1 2 2.</_>
        <_>
          9 16 1 2 2.</_></rects>
      <tilted>0</tilted></_>
    <_>
      <rects>
        <_>
          8 15 12 1 -1.</_>
        <_>
          12 15 4 1 3.</_></rects>
      <tilted>0</tilted></_>
    <_>
      <rects>
        <_>
          8 16 6 1 -1.</_>
        <_>
          10 16 2 1 3.</_></rects>
      <tilted>0</tilted></_>
    <_>
      <rects>
        <_>
          8 16 6 4 -1.</_>
        <_>
          10 16 2 4 3.</_></rects>
      <tilted>0</tilted></_>
    <_>
      <rects>
        <_>
          8 17 8 1 -1.</_>
        <_>
          10 17 4 1 2.</_></rects>
      <tilted>0</tilted></_>
    <_>
      <rects>
        <_>
          9 3 1 3 -1.</_>
        <_>
          9 4 1 1 3.</_></rects>
      <tilted>0</tilted></_>
    <_>
      <rects>
        <_>
          9 4 7 6 -1.</_>
        <_>
          9 7 7 3 2.</_></rects>
      <tilted>0</tilted></_>
    <_>
      <rects>
        <_>
          9 5 6 9 -1.</_>
        <_>
          11 5 2 9 3.</_></rects>
      <tilted>0</tilted></_>
    <_>
      <rects>
        <_>
          9 9 2 1 -1.</_>
        <_>
          10 9 1 1 2.</_></rects>
      <tilted>0</tilted></_>
    <_>
      <rects>
        <_>
          9 9 2 2 -1.</_>
        <_>
          10 9 1 2 2.</_></rects>
      <tilted>0</tilted></_>
    <_>
      <rects>
        <_>
          9 9 2 2 -1.</_>
        <_>
          9 9 2 1 2.</_></rects>
      <tilted>1</tilted></_>
    <_>
      <rects>
        <_>
          9 10 3 1 -1.</_>
        <_>
          10 11 1 1 3.</_></rects>
      <tilted>1</tilted></_>
    <_>
      <rects>
        <_>
          9 10 6 3 -1.</_>
        <_>
          11 11 2 1 9.</_></rects>
      <tilted>0</tilted></_>
    <_>
      <rects>
        <_>
          9 10 6 3 -1.</_>
        <_>
          11 10 2 3 3.</_></rects>
      <tilted>0</tilted></_>
    <_>
      <rects>
        <_>
          9 11 6 3 -1.</_>
        <_>
          11 12 2 1 9.</_></rects>
      <tilted>0</tilted></_>
    <_>
      <rects>
        <_>
          9 11 4 2 -1.</_>
        <_>
          11 11 2 2 2.</_></rects>
      <tilted>0</tilted></_>
    <_>
      <rects>
        <_>
          9 11 6 8 -1.</_>
        <_>
          11 11 2 8 3.</_></rects>
      <tilted>0</tilted></_>
    <_>
      <rects>
        <_>
          9 12 1 2 -1.</_>
        <_>
          9 12 1 1 2.</_></rects>
      <tilted>1</tilted></_>
    <_>
      <rects>
        <_>
          9 13 2 2 -1.</_>
        <_>
          9 13 1 1 2.</_>
        <_>
          10 14 1 1 2.</_></rects>
      <tilted>0</tilted></_>
    <_>
      <rects>
        <_>
          9 13 3 3 -1.</_>
        <_>
          10 14 1 1 9.</_></rects>
      <tilted>0</tilted></_>
    <_>
      <rects>
        <_>
          9 14 4 1 -1.</_>
        <_>
          9 14 2 1 2.</_></rects>
      <tilted>1</tilted></_>
    <_>
      <rects>
        <_>
          9 14 6 7 -1.</_>
        <_>
          11 14 2 7 3.</_></rects>
      <tilted>0</tilted></_>
    <_>
      <rects>
        <_>
          10 3 4 16 -1.</_>
        <_>
          10 7 4 8 2.</_></rects>
      <tilted>0</tilted></_>
    <_>
      <rects>
        <_>
          10 4 3 15 -1.</_>
        <_>
          11 9 1 5 9.</_></rects>
      <tilted>0</tilted></_>
    <_>
      <rects>
        <_>
          10 7 6 5 -1.</_>
        <_>
          12 7 2 5 3.</_></rects>
      <tilted>0</tilted></_>
    <_>
      <rects>
        <_>
          10 7 6 6 -1.</_>
        <_>
          12 7 2 6 3.</_></rects>
      <tilted>0</tilted></_>
    <_>
      <rects>
        <_>
          10 9 5 3 -1.</_>
        <_>
          10 10 5 1 3.</_></rects>
      <tilted>0</tilted></_>
    <_>
      <rects>
        <_>
          10 10 9 4 -1.</_>
        <_>
          10 10 9 2 2.</_></rects>
      <tilted>1</tilted></_>
    <_>
      <rects>
        <_>
          10 11 4 1 -1.</_>
        <_>
          11 11 2 1 2.</_></rects>
      <tilted>0</tilted></_>
    <_>
      <rects>
        <_>
          10 11 1 2 -1.</_>
        <_>
          10 11 1 1 2.</_></rects>
      <tilted>1</tilted></_>
    <_>
      <rects>
        <_>
          10 11 2 2 -1.</_>
        <_>
          11 11 1 2 2.</_></rects>
      <tilted>0</tilted></_>
    <_>
      <rects>
        <_>
          10 11 4 2 -1.</_>
        <_>
          11 11 2 2 2.</_></rects>
      <tilted>0</tilted></_>
    <_>
      <rects>
        <_>
          10 12 4 1 -1.</_>
        <_>
          11 12 2 1 2.</_></rects>
      <tilted>0</tilted></_>
    <_>
      <rects>
        <_>
          10 14 6 1 -1.</_>
        <_>
          12 14 2 1 3.</_></rects>
      <tilted>0</tilted></_>
    <_>
      <rects>
        <_>
          10 15 6 3 -1.</_>
        <_>
          12 16 2 1 9.</_></rects>
      <tilted>0</tilted></_>
    <_>
      <rects>
        <_>
          10 16 4 3 -1.</_>
        <_>
          11 16 2 3 2.</_></rects>
      <tilted>0</tilted></_>
    <_>
      <rects>
        <_>
          11 4 1 10 -1.</_>
        <_>
          11 9 1 5 2.</_></rects>
      <tilted>0</tilted></_>
    <_>
      <rects>
        <_>
          11 5 3 6 -1.</_>
        <_>
          11 7 3 2 3.</_></rects>
      <tilted>0</tilted></_>
    <_>
      <rects>
        <_>
          11 6 4 6 -1.</_>
        <_>
          11 8 4 2 3.</_></rects>
      <tilted>0</tilted></_>
    <_>
      <rects>
        <_>
          11 9 1 3 -1.</_>
        <_>
          11 10 1 1 3.</_></rects>
      <tilted>0</tilted></_>
    <_>
      <rects>
        <_>
          11 9 1 4 -1.</_>
        <_>
          11 10 1 2 2.</_></rects>
      <tilted>0</tilted></_>
    <_>
      <rects>
        <_>
          11 9 1 4 -1.</_>
        <_>
          11 11 1 2 2.</_></rects>
      <tilted>0</tilted></_>
    <_>
      <rects>
        <_>
          11 9 1 6 -1.</_>
        <_>
          11 12 1 3 2.</_></rects>
      <tilted>0</tilted></_>
    <_>
      <rects>
        <_>
          11 10 1 2 -1.</_>
        <_>
          11 11 1 1 2.</_></rects>
      <tilted>0</tilted></_>
    <_>
      <rects>
        <_>
          11 10 2 3 -1.</_>
        <_>
          11 11 2 1 3.</_></rects>
      <tilted>0</tilted></_>
    <_>
      <rects>
        <_>
          11 10 2 4 -1.</_>
        <_>
          11 11 2 2 2.</_></rects>
      <tilted>0</tilted></_>
    <_>
      <rects>
        <_>
          11 10 6 10 -1.</_>
        <_>
          11 10 3 5 2.</_>
        <_>
          14 15 3 5 2.</_></rects>
      <tilted>0</tilted></_>
    <_>
      <rects>
        <_>
          11 11 2 2 -1.</_>
        <_>
          12 11 1 2 2.</_></rects>
      <tilted>0</tilted></_>
    <_>
      <rects>
        <_>
          11 11 3 2 -1.</_>
        <_>
          12 11 1 2 3.</_></rects>
      <tilted>0</tilted></_>
    <_>
      <rects>
        <_>
          11 11 2 2 -1.</_>
        <_>
          11 12 2 1 2.</_></rects>
      <tilted>0</tilted></_>
    <_>
      <rects>
        <_>
          11 11 10 1 -1.</_>
        <_>
          16 11 5 1 2.</_></rects>
      <tilted>0</tilted></_>
    <_>
      <rects>
        <_>
          11 11 6 8 -1.</_>
        <_>
          11 15 6 4 2.</_></rects>
      <tilted>0</tilted></_>
    <_>
      <rects>
        <_>
          11 12 2 1 -1.</_>
        <_>
          12 12 1 1 2.</_></rects>
      <tilted>0</tilted></_>
    <_>
      <rects>
        <_>
          11 12 1 2 -1.</_>
        <_>
          11 13 1 1 2.</_></rects>
      <tilted>0</tilted></_>
    <_>
      <rects>
        <_>
          11 12 4 1 -1.</_>
        <_>
          12 12 2 1 2.</_></rects>
      <tilted>0</tilted></_>
    <_>
      <rects>
        <_>
          11 12 2 2 -1.</_>
        <_>
          12 12 1 2 2.</_></rects>
      <tilted>0</tilted></_>
    <_>
      <rects>
        <_>
          11 12 2 2 -1.</_>
        <_>
          11 13 2 1 2.</_></rects>
      <tilted>0</tilted></_>
    <_>
      <rects>
        <_>
          11 13 1 2 -1.</_>
        <_>
          11 13 1 1 2.</_></rects>
      <tilted>1</tilted></_>
    <_>
      <rects>
        <_>
          11 15 6 5 -1.</_>
        <_>
          13 15 2 5 3.</_></rects>
      <tilted>0</tilted></_>
    <_>
      <rects>
        <_>
          12 1 12 10 -1.</_>
        <_>
          12 1 6 10 2.</_></rects>
      <tilted>1</tilted></_>
    <_>
      <rects>
        <_>
          12 4 1 10 -1.</_>
        <_>
          12 9 1 5 2.</_></rects>
      <tilted>0</tilted></_>
    <_>
      <rects>
        <_>
          12 7 10 3 -1.</_>
        <_>
          12 7 5 3 2.</_></rects>
      <tilted>1</tilted></_>
    <_>
      <rects>
        <_>
          12 8 1 4 -1.</_>
        <_>
          12 10 1 2 2.</_></rects>
      <tilted>0</tilted></_>
    <_>
      <rects>
        <_>
          12 8 1 10 -1.</_>
        <_>
          12 13 1 5 2.</_></rects>
      <tilted>0</tilted></_>
    <_>
      <rects>
        <_>
          12 9 2 1 -1.</_>
        <_>
          12 9 1 1 2.</_></rects>
      <tilted>1</tilted></_>
    <_>
      <rects>
        <_>
          12 9 3 1 -1.</_>
        <_>
          13 10 1 1 3.</_></rects>
      <tilted>1</tilted></_>
    <_>
      <rects>
        <_>
          12 9 1 4 -1.</_>
        <_>
          12 11 1 2 2.</_></rects>
      <tilted>0</tilted></_>
    <_>
      <rects>
        <_>
          12 9 6 3 -1.</_>
        <_>
          15 9 3 3 2.</_></rects>
      <tilted>0</tilted></_>
    <_>
      <rects>
        <_>
          12 10 1 4 -1.</_>
        <_>
          12 11 1 2 2.</_></rects>
      <tilted>0</tilted></_>
    <_>
      <rects>
        <_>
          12 10 2 1 -1.</_>
        <_>
          12 10 1 1 2.</_></rects>
      <tilted>1</tilted></_>
    <_>
      <rects>
        <_>
          12 10 1 4 -1.</_>
        <_>
          12 12 1 2 2.</_></rects>
      <tilted>0</tilted></_>
    <_>
      <rects>
        <_>
          12 11 1 3 -1.</_>
        <_>
          12 12 1 1 3.</_></rects>
      <tilted>0</tilted></_>
    <_>
      <rects>
        <_>
          12 11 2 1 -1.</_>
        <_>
          12 11 1 1 2.</_></rects>
      <tilted>1</tilted></_>
    <_>
      <rects>
        <_>
          12 11 3 2 -1.</_>
        <_>
          13 11 1 2 3.</_></rects>
      <tilted>0</tilted></_>
    <_>
      <rects>
        <_>
          12 11 2 2 -1.</_>
        <_>
          12 12 2 1 2.</_></rects>
      <tilted>0</tilted></_>
    <_>
      <rects>
        <_>
          12 12 2 1 -1.</_>
        <_>
          13 12 1 1 2.</_></rects>
      <tilted>0</tilted></_>
    <_>
      <rects>
        <_>
          12 12 4 1 -1.</_>
        <_>
          13 12 2 1 2.</_></rects>
      <tilted>0</tilted></_>
    <_>
      <rects>
        <_>
          12 12 3 3 -1.</_>
        <_>
          13 13 1 1 9.</_></rects>
      <tilted>0</tilted></_>
    <_>
      <rects>
        <_>
          12 17 2 6 -1.</_>
        <_>
          12 19 2 2 3.</_></rects>
      <tilted>0</tilted></_>
    <_>
      <rects>
        <_>
          13 4 6 8 -1.</_>
        <_>
          13 4 3 4 2.</_>
        <_>
          16 8 3 4 2.</_></rects>
      <tilted>0</tilted></_>
    <_>
      <rects>
        <_>
          13 7 2 4 -1.</_>
        <_>
          12 8 2 2 2.</_></rects>
      <tilted>1</tilted></_>
    <_>
      <rects>
        <_>
          13 9 4 2 -1.</_>
        <_>
          13 9 2 2 2.</_></rects>
      <tilted>1</tilted></_>
    <_>
      <rects>
        <_>
          13 10 1 2 -1.</_>
        <_>
          13 10 1 1 2.</_></rects>
      <tilted>1</tilted></_>
    <_>
      <rects>
        <_>
          13 11 3 1 -1.</_>
        <_>
          14 11 1 1 3.</_></rects>
      <tilted>0</tilted></_>
    <_>
      <rects>
        <_>
          13 11 4 1 -1.</_>
        <_>
          14 11 2 1 2.</_></rects>
      <tilted>0</tilted></_>
    <_>
      <rects>
        <_>
          13 11 2 1 -1.</_>
        <_>
          13 11 1 1 2.</_></rects>
      <tilted>1</tilted></_>
    <_>
      <rects>
        <_>
          13 11 1 2 -1.</_>
        <_>
          13 11 1 1 2.</_></rects>
      <tilted>1</tilted></_>
    <_>
      <rects>
        <_>
          13 12 3 1 -1.</_>
        <_>
          14 12 1 1 3.</_></rects>
      <tilted>0</tilted></_>
    <_>
      <rects>
        <_>
          14 6 4 4 -1.</_>
        <_>
          14 6 2 2 2.</_>
        <_>
          16 8 2 2 2.</_></rects>
      <tilted>0</tilted></_>
    <_>
      <rects>
        <_>
          14 7 6 3 -1.</_>
        <_>
          16 7 2 3 3.</_></rects>
      <tilted>0</tilted></_>
    <_>
      <rects>
        <_>
          14 11 6 6 -1.</_>
        <_>
          14 14 6 3 2.</_></rects>
      <tilted>0</tilted></_>
    <_>
      <rects>
        <_>
          14 13 3 3 -1.</_>
        <_>
          15 14 1 1 9.</_></rects>
      <tilted>0</tilted></_>
    <_>
      <rects>
        <_>
          15 5 3 4 -1.</_>
        <_>
          15 5 3 2 2.</_></rects>
      <tilted>1</tilted></_>
    <_>
      <rects>
        <_>
          15 7 3 3 -1.</_>
        <_>
          16 8 1 1 9.</_></rects>
      <tilted>0</tilted></_>
    <_>
      <rects>
        <_>
          15 8 6 3 -1.</_>
        <_>
          17 9 2 1 9.</_></rects>
      <tilted>0</tilted></_>
    <_>
      <rects>
        <_>
          15 8 3 2 -1.</_>
        <_>
          15 8 3 1 2.</_></rects>
      <tilted>1</tilted></_>
    <_>
      <rects>
        <_>
          15 11 2 1 -1.</_>
        <_>
          15 11 1 1 2.</_></rects>
      <tilted>1</tilted></_>
    <_>
      <rects>
        <_>
          15 12 2 1 -1.</_>
        <_>
          15 12 1 1 2.</_></rects>
      <tilted>1</tilted></_>
    <_>
      <rects>
        <_>
          15 12 2 2 -1.</_>
        <_>
          15 13 2 1 2.</_></rects>
      <tilted>0</tilted></_>
    <_>
      <rects>
        <_>
          15 12 4 2 -1.</_>
        <_>
          15 12 2 1 2.</_>
        <_>
          17 13 2 1 2.</_></rects>
      <tilted>0</tilted></_>
    <_>
      <rects>
        <_>
          15 14 8 2 -1.</_>
        <_>
          17 16 4 2 2.</_></rects>
      <tilted>1</tilted></_>
    <_>
      <rects>
        <_>
          16 0 1 2 -1.</_>
        <_>
          16 1 1 1 2.</_></rects>
      <tilted>0</tilted></_>
    <_>
      <rects>
        <_>
          16 0 2 2 -1.</_>
        <_>
          16 1 2 1 2.</_></rects>
      <tilted>0</tilted></_>
    <_>
      <rects>
        <_>
          16 8 3 3 -1.</_>
        <_>
          17 9 1 1 9.</_></rects>
      <tilted>0</tilted></_>
    <_>
      <rects>
        <_>
          16 8 8 1 -1.</_>
        <_>
          18 8 4 1 2.</_></rects>
      <tilted>0</tilted></_>
    <_>
      <rects>
        <_>
          16 12 2 1 -1.</_>
        <_>
          16 12 1 1 2.</_></rects>
      <tilted>1</tilted></_>
    <_>
      <rects>
        <_>
          17 3 5 14 -1.</_>
        <_>
          17 3 5 7 2.</_></rects>
      <tilted>1</tilted></_>
    <_>
      <rects>
        <_>
          17 8 4 6 -1.</_>
        <_>
          19 8 2 6 2.</_></rects>
      <tilted>0</tilted></_>
    <_>
      <rects>
        <_>
          17 10 4 4 -1.</_>
        <_>
          18 11 2 4 2.</_></rects>
      <tilted>1</tilted></_>
    <_>
      <rects>
        <_>
          17 13 1 3 -1.</_>
        <_>
          16 14 1 1 3.</_></rects>
      <tilted>1</tilted></_>
    <_>
      <rects>
        <_>
          18 2 6 18 -1.</_>
        <_>
          21 2 3 18 2.</_></rects>
      <tilted>0</tilted></_>
    <_>
      <rects>
        <_>
          18 4 4 12 -1.</_>
        <_>
          18 4 2 12 2.</_></rects>
      <tilted>1</tilted></_>
    <_>
      <rects>
        <_>
          18 11 1 6 -1.</_>
        <_>
          18 11 1 3 2.</_></rects>
      <tilted>1</tilted></_>
    <_>
      <rects>
        <_>
          19 5 2 10 -1.</_>
        <_>
          19 5 2 5 2.</_></rects>
      <tilted>1</tilted></_>
    <_>
      <rects>
        <_>
          19 12 3 1 -1.</_>
        <_>
          20 12 1 1 3.</_></rects>
      <tilted>0</tilted></_>
    <_>
      <rects>
        <_>
          20 0 1 24 -1.</_>
        <_>
          20 6 1 12 2.</_></rects>
      <tilted>0</tilted></_></features></cascade>
</opencv_storage>
